{
  "seed": 100,
  "X": [
    [
      -2.0
    ],
    [
      -1.8857142857
    ],
    [
      -1.7714285714
    ],
    [
      -1.6571428571
    ],
    [
      -1.5428571429
    ],
    [
      -1.4285714286
    ],
    [
      -1.3142857143
    ],
    [
      -1.2
    ],
    [
      -1.0857142857
    ],
    [
      -0.9714285714
    ],
    [
      -0.8571428571
    ],
    [
      -0.7428571429
    ],
    [
      -0.6285714286
    ],
    [
      -0.5142857143
    ],
    [
      -0.4
    ],
    [
      -0.2857142857
    ],
    [
      -0.1714285714
    ],
    [
      -0.0571428571
    ],
    [
      0.0571428571
    ],
    [
      0.1714285714
    ],
    [
      0.2857142857
    ],
    [
      0.4
    ],
    [
      0.5142857143
    ],
    [
      0.6285714286
    ],
    [
      0.7428571429
    ],
    [
      0.8571428571
    ],
    [
      0.9714285714
    ],
    [
      1.0857142857
    ],
    [
      1.2
    ],
    [
      1.3142857143
    ],
    [
      1.4285714286
    ],
    [
      1.5428571429
    ],
    [
      1.6571428571
    ],
    [
      1.7714285714
    ],
    [
      1.8857142857
    ],
    [
      2.0
    ]
  ],
  "y": [
    -1.2893874118,
    -0.9566222739,
    -0.8524599521,
    -0.9198433235,
    -1.2938966807,
    -0.7730641601,
    -0.842268738,
    -0.8077566362,
    -0.7536527167,
    -0.6093009455,
    -0.2596650643,
    -0.8978528725,
    -0.647299245,
    -0.1242168396,
    -0.7904949666,
    -0.257381893,
    -0.3833814698,
    -0.0779350443,
    0.1942801482,
    -0.2481631091,
    0.1559620631,
    0.2326322294,
    0.7165934698,
    0.8029719022,
    1.5652254246,
    1.2573703787,
    2.0687476525,
    1.7813764778,
    2.2038523802,
    2.4094702541,
    2.6763489673,
    2.6760830489,
    3.3364129377,
    3.6540137035,
    3.9332547969,
    4.3553529186
  ],
  "sample_weight": [
    2.5,
    0.75,
    0.75,
    0.75,
    0.75,
    2.5,
    0.75,
    0.75,
    0.75,
    0.75,
    2.5,
    0.75,
    0.75,
    0.75,
    0.75,
    2.5,
    0.75,
    0.75,
    0.75,
    0.75,
    2.5,
    0.75,
    0.75,
    0.75,
    0.75,
    2.5,
    0.75,
    0.75,
    0.75,
    0.75,
    2.5,
    0.75,
    0.75,
    0.75,
    0.75,
    2.5
  ],
  "groups": [
    0,
    0,
    0,
    1,
    1,
    1,
    2,
    2,
    2,
    3,
    3,
    3,
    4,
    4,
    4,
    5,
    5,
    5,
    6,
    6,
    6,
    7,
    7,
    7,
    8,
    8,
    8,
    9,
    9,
    9,
    10,
    10,
    10,
    11,
    11,
    11
  ],
  "times": [
    0,
    1,
    2,
    3,
    4,
    5,
    6,
    7,
    8,
    9,
    10,
    11,
    12,
    13,
    14,
    15,
    16,
    17,
    18,
    19,
    20,
    21,
    22,
    23,
    24,
    25,
    26,
    27,
    28,
    29,
    30,
    31,
    32,
    33,
    34,
    35
  ]
}
